Metric,Value
Tree Structure,"DecisionTreeRegressionModel: uid=DecisionTreeRegressor_e1c45613e425, depth=15, numNodes=48991, numFeatures=13
  If (feature 12 <= 2.2395526203422014)
   If (feature 12 <= 1.1388761388192779)
    If (feature 12 <= 0.7893743676407786)
     If (feature 5 <= 40.76932716369629)
      If (feature 9 <= 7.5)
       If (feature 5 <= 40.72550392150879)
        If (feature 4 <= -73.90609741210938)
         If (feature 4 <= -73.98368453979492)
          If (feature 9 <= 1.5)
           If (feature 4 <= -73.99702453613281)
            If (feature 10 <= 0.5)
             If (feature 2 <= -74.00307083129883)
              If (feature 8 <= 2.5)
               If (feature 3 <= 40.70049476623535)
                Predict: 7.21890970761906
               Else (feature 3 > 40.70049476623535)
                If (feature 7 <= 4.5)
                 Predict: 5.741013631625383
                Else (feature 7 > 4.5)
                 Predict: 5.406286333226526
              Else (feature 8 > 2.5)
               If (feature 7 <= 1.5)
                If (feature 6 <= 7.5)
                 Predict: 4.748865806828857
                Else (feature 6 > 7.5)
                 Predict: 5.199023966962101
               Else (feature 7 > 1.5)
                If (feature 1 <= 5.5)
                 Predict: 5.402540749648216
                Else (feature 1 > 5.5)
                 Predict: 6.1156069689682795
             Else (feature 2 > -74.00307083129883)
              If (feature 3 <= 40.7199821472168)
               If (feature 8 <= 4.5)
                If (feature 8 <= 3.5)
                 Predict: 5.333690114849385
                Else (feature 8 > 3.5)
                 Predict: 4.47318741307086
               Else (feature 8 > 4.5)
                If (feature 4 <= -74.00348281860352)
                 Predict: 5.3042345550756815
                Else (feature 4 > -74.00348281860352)
                 Predict: 5.819445071398684
              Else (feature 3 > 40.7199821472168)
               If (feature 2 <= -73.99174880981445)
                If (feature 2 <= -74.0004997253418)
                 Predict: 5.81561122485893
                Else (feature 2 > -74.0004997253418)
                 Predict: 5.5728124298436095
               Else (feature 2 > -73.99174880981445)
                If (feature 6 <= 16.5)
                 Predict: 5.884767669475655
                Else (feature 6 > 16.5)
                 Predict: 6.584791392385718
            Else (feature 10 > 0.5)
             If (feature 1 <= 1.5)
              Predict: 4.127134385045092
             Else (feature 1 > 1.5)
              Predict: 5.023880520846277
           Else (feature 4 > -73.99702453613281)
            If (feature 12 <= 0.5411748509607731)
             If (feature 8 <= 6.5)
              If (feature 4 <= -73.9867057800293)
               If (feature 5 <= 40.715227127075195)
                If (feature 1 <= 1.5)
                 Predict: 5.279047914014256
                Else (feature 1 > 1.5)
                 Predict: 4.637823282605168
               Else (feature 5 > 40.715227127075195)
                If (feature 7 <= 5.5)
                 Predict: 5.5474780977852856
                Else (feature 7 > 5.5)
                 Predict: 5.815715007932557
              Else (feature 4 > -73.9867057800293)
               If (feature 5 <= 40.68699073791504)
                If (feature 1 <= 1.5)
                 Predict: 5.545177444479562
                Else (feature 1 > 1.5)
                 Predict: 6.618738983517219
               Else (feature 5 > 40.68699073791504)
                If (feature 2 <= -73.9843864440918)
                 Predict: 5.198340466081258
                Else (feature 2 > -73.9843864440918)
                 Predict: 4.566944656087323
             Else (feature 8 > 6.5)
              If (feature 6 <= 26.5)
               If (feature 3 <= 40.72774314880371)
                If (feature 2 <= -73.99072647094727)
                 Predict: 5.618945265454043
                Else (feature 2 > -73.99072647094727)
                 Predict: 5.867150510765229
               Else (feature 3 > 40.72774314880371)
                Predict: 6.993932975223174
              Else (feature 6 > 26.5)
               If (feature 7 <= 2.5)
                If (feature 2 <= -73.99174880981445)
                 Predict: 5.032584885260603
                Else (feature 2 > -73.99174880981445)
                 Predict: 5.894803156292973
               Else (feature 7 > 2.5)
                If (feature 2 <= -73.99174880981445)
                 Predict: 5.283190844962526
                Else (feature 2 > -73.99174880981445)
                 Predict: 4.595746558665748
            Else (feature 12 > 0.5411748509607731)
             If (feature 8 <= 1.5)
              If (feature 5 <= 40.715227127075195)
               If (feature 5 <= 40.68699073791504)
                If (feature 6 <= 5.5)
                 Predict: 5.652489180268651
                Else (feature 6 > 5.5)
                 Predict: 5.006290920186288
               Else (feature 5 > 40.68699073791504)
                If (feature 0 <= 1.5)
                 Predict: 5.564520407322694
                Else (feature 0 > 1.5)
                 Predict: 5.631211781821366
              Else (feature 5 > 40.715227127075195)
               If (feature 9 <= 0.5)
                If (feature 2 <= -73.9819450378418)
                 Predict: 6.279470897543601
                Else (feature 2 > -73.9819450378418)
                 Predict: 5.5099043874925115
               Else (feature 9 > 0.5)
                If (feature 2 <= -73.98288345336914)
                 Predict: 5.873856394768733
                Else (feature 2 > -73.98288345336914)
                 Predict: 5.365161049514574
             Else (feature 8 > 1.5)
              If (feature 8 <= 6.5)
               If (feature 7 <= 5.5)
                If (feature 9 <= 0.5)
                 Predict: 5.617321745405405
                Else (feature 9 > 0.5)
                 Predict: 5.4280718689239364
               Else (feature 7 > 5.5)
                If (feature 6 <= 27.5)
                 Predict: 5.710871600167244
                Else (feature 6 > 27.5)
                 Predict: 6.453234818937936
              Else (feature 8 > 6.5)
               If (feature 3 <= 40.72381019592285)
                If (feature 6 <= 7.5)
                 Predict: 5.427772145047567
                Else (feature 6 > 7.5)
                 Predict: 5.803458318731461
               Else (feature 3 > 40.72381019592285)
                If (feature 2 <= -73.99760818481445)
                 Predict: 5.563948038546123
                Else (feature 2 > -73.99760818481445)
                 Predict: 6.078037139070564
          Else (feature 9 > 1.5)
           If (feature 12 <= 0.6832829369247846)
            If (feature 4 <= -73.99260330200195)
             If (feature 6 <= 12.5)
              If (feature 5 <= 40.68699073791504)
               If (feature 7 <= 4.5)
                If (feature 6 <= 6.5)
                 Predict: 6.431358694433811
                Else (feature 6 > 6.5)
                 Predict: 5.0058557580001315
               Else (feature 7 > 4.5)
                If (feature 9 <= 2.5)
                 Predict: 7.358830898342354
                Else (feature 9 > 2.5)
                 Predict: 6.34452150654243
              Else (feature 5 > 40.68699073791504)
               If (feature 3 <= 40.72381019592285)
                If (feature 8 <= 3.5)
                 Predict: 5.608910635439692
                Else (feature 8 > 3.5)
                 Predict: 5.3779333653960615
               Else (feature 3 > 40.72381019592285)
                If (feature 6 <= 2.5)
                 Predict: 5.970671661998669
                Else (feature 6 > 2.5)
                 Predict: 5.061998080716793
             Else (feature 6 > 12.5)
              If (feature 9 <= 6.5)
               If (feature 9 <= 4.5)
                If (feature 8 <= 2.5)
                 Predict: 5.145414692573968
                Else (feature 8 > 2.5)
                 Predict: 5.416977064128998
               Else (feature 9 > 4.5)
                If (feature 5 <= 40.68699073791504)
                 Predict: 5.479419393891827
                Else (feature 5 > 40.68699073791504)
                 Predict: 5.013573387579838
              Else (feature 9 > 6.5)
               If (feature 6 <= 15.5)
                If (feature 4 <= -73.99702453613281)
                 Predict: 5.060625182441352
                Else (feature 4 > -73.99702453613281)
                 Predict: 6.263398262591622
               Else (feature 6 > 15.5)
                If (feature 5 <= 40.715227127075195)
                 Predict: 5.664405324265621
                Else (feature 5 > 40.715227127075195)
                 Predict: 5.346382999074209
            Else (feature 4 > -73.99260330200195)
             If (feature 2 <= -73.98825454711914)
              If (feature 5 <= 40.68699073791504)
               If (feature 9 <= 3.5)
                If (feature 4 <= -73.99116134643555)
                 Predict: 4.543294782270004
                Else (feature 4 > -73.99116134643555)
                 Predict: 4.303699729651193
               Else (feature 9 > 3.5)
                If (feature 0 <= 1.5)
                 Predict: 5.247024072160486
                Else (feature 0 > 1.5)
                 Predict: 5.629390661268115
              Else (feature 5 > 40.68699073791504)
               If (feature 5 <= 40.70734977722168)
                If (feature 2 <= -73.99174880981445)
                 Predict: 5.1325352164137215
                Else (feature 2 > -73.99174880981445)
                 Predict: 7.151285057680071
               Else (feature 5 > 40.70734977722168)
                If (feature 4 <= -73.98514175415039)
                 Predict: 5.58494775617659
                Else (feature 4 > -73.98514175415039)
                 Predict: 5.155192239530879
             Else (feature 2 > -73.98825454711914)
              If (feature 8 <= 6.5)
               If (feature 6 <= 2.5)
                If (feature 9 <= 2.5)
                 Predict: 5.327876168789581
                Else (feature 9 > 2.5)
                 Predict: 4.530988808990047
               Else (feature 6 > 2.5)
                If (feature 3 <= 40.72774314880371)
                 Predict: 5.316911737190442
                Else (feature 3 > 40.72774314880371)
                 Predict: 4.89456745732142
              Else (feature 8 > 6.5)
               If (feature 6 <= 27.5)
                If (feature 9 <= 3.5)
                 Predict: 5.560802168084828
                Else (feature 9 > 3.5)
                 Predict: 5.189312226234068
               Else (feature 6 > 27.5)
                If (feature 3 <= 40.70049476623535)
                 Predict: 7.635786861395585
                Else (feature 3 > 40.70049476623535)
                 Predict: 6.28738035372393
           Else (feature 12 > 0.6832829369247846)
            If (feature 3 <= 40.70049476623535)
             If (feature 7 <= 3.5)
              If (feature 11 <= 0.5)
               If (feature 7 <= 2.5)
                Predict: 5.241747015059643
               Else (feature 7 > 2.5)
                If (feature 1 <= 1.5)
                 Predict: 5.693454312193371
                Else (feature 1 > 1.5)
                 Predict: 6.0473721790462776
              Else (feature 11 > 0.5)
               If (feature 1 <= 1.5)
                Predict: 5.267858159063328
               Else (feature 1 > 1.5)
                Predict: 4.948759890378168
             Else (feature 7 > 3.5)
              If (feature 6 <= 26.5)
               If (feature 2 <= -73.97918319702148)
                If (feature 4 <= -73.99702453613281)
                 Predict: 5.3643714672388
                Else (feature 4 > -73.99702453613281)
                 Predict: 5.238041735327165
               Else (feature 2 > -73.97918319702148)
                Predict: 5.010635294096254
              Else (feature 6 > 26.5)
               Predict: 4.812184355372423
            Else (feature 3 > 40.70049476623535)
             If (feature 4 <= -73.99260330200195)
              If (feature 3 <= 40.72381019592285)
               If (feature 0 <= 1.5)
                If (feature 6 <= 14.5)
                 Predict: 5.617762025431932
                Else (feature 6 > 14.5)
                 Predict: 5.437278285842271
               Else (feature 0 > 1.5)
                If (feature 3 <= 40.71390151977539)
                 Predict: 5.783756823491827
                Else (feature 3 > 40.71390151977539)
                 Predict: 5.5823060301290965
              Else (feature 3 > 40.72381019592285)
               If (feature 8 <= 2.5)
                If (feature 2 <= -74.00589370727539)
                 Predict: 6.184148890937483
                Else (feature 2 > -74.00589370727539)
                 Predict: 5.542298887145216
               Else (feature 8 > 2.5)
                If (feature 6 <= 16.5)
                 Predict: 5.486655787594782
                Else (feature 6 > 16.5)
                 Predict: 5.127783168326841
             Else (feature 4 > -73.99260330200195)
              If (feature 9 <= 3.5)
               If (feature 1 <= 1.5)
                If (feature 2 <= -73.98714065551758)
                 Predict: 5.674783053911926
                Else (feature 2 > -73.98714065551758)
                 Predict: 6.071689873882325
               Else (feature 1 > 1.5)
                If (feature 1 <= 3.5)
                 Predict: 6.0750382406807
                Else (feature 1 > 3.5)
                 Predict: 5.63104213780135
              Else (feature 9 > 3.5)
               If (feature 3 <= 40.7199821472168)
                If (feature 2 <= -73.98714065551758)
                 Predict: 5.82327255667995
                Else (feature 2 > -73.98714065551758)
                 Predict: 6.795705775173513
               Else (feature 3 > 40.7199821472168)
                If (feature 8 <= 2.5)
                 Predict: 5.487316643741702
                Else (feature 8 > 2.5)
                 Predict: 5.070430022830374
         Else (feature 4 > -73.98368453979492)
          If (feature 9 <= 6.5)
           If (feature 8 <= 1.5)
            If (feature 3 <= 40.70049476623535)
             If (feature 1 <= 5.5)
              If (feature 7 <= 1.5)
               If (feature 2 <= -73.95516204833984)
                If (feature 0 <= 1.5)
                 Predict: 5.993961427306569
                Else (feature 0 > 1.5)
                 Predict: 5.36412746277024
               Else (feature 2 > -73.95516204833984)
                If (feature 9 <= 5.5)
                 Predict: 8.00202481821611
                Else (feature 9 > 5.5)
                 Predict: 6.979145275068809
              Else (feature 7 > 1.5)
               If (feature 9 <= 3.5)
                If (feature 2 <= -73.98714065551758)
                 Predict: 4.143134726391533
                Else (feature 2 > -73.98714065551758)
                 Predict: 5.838426197487707
               Else (feature 9 > 3.5)
                If (feature 6 <= 6.5)
                 Predict: 4.524028354459368
                Else (feature 6 > 6.5)
                 Predict: 5.12747281989052
             Else (feature 1 > 5.5)
              Predict: 7.57558465155779
            Else (feature 3 > 40.70049476623535)
             If (feature 12 <= 0.6832829369247846)
              If (feature 9 <= 0.5)
               If (feature 7 <= 1.5)
                If (feature 3 <= 40.71390151977539)
                 Predict: 5.718756012840178
                Else (feature 3 > 40.71390151977539)
                 Predict: 6.433305701739892
               Else (feature 7 > 1.5)
                If (feature 1 <= 1.5)
                 Predict: 5.141077082895455
                Else (feature 1 > 1.5)
                 Predict: 5.502841532379642
              Else (feature 9 > 0.5)
               If (feature 6 <= 14.5)
                If (feature 6 <= 6.5)
                 Predict: 5.034832260396322
                Else (feature 6 > 6.5)
                 Predict: 5.493338186842027
               Else (feature 6 > 14.5)
                If (feature 1 <= 1.5)
                 Predict: 5.226134803751827
                Else (feature 1 > 1.5)
                 Predict: 4.830952656206764
             Else (feature 12 > 0.6832829369247846)
              If (feature 9 <= 4.5)
               If (feature 3 <= 40.7199821472168)
                If (feature 6 <= 10.5)
                 Predict: 5.738805210299563
                Else (feature 6 > 10.5)
                 Predict: 5.38341287364648
               Else (feature 3 > 40.7199821472168)
                If (feature 7 <= 3.5)
                 Predict: 5.584854158160605
                Else (feature 7 > 3.5)
                 Predict: 6.0099547672912115
              Else (feature 9 > 4.5)
               Predict: 4.499809670330251
           Else (feature 8 > 1.5)
            If (feature 2 <= -73.9843864440918)
             If (feature 7 <= 5.5)
              If (feature 12 <= 0.5411748509607731)
               If (feature 6 <= 12.5)
                If (feature 6 <= 11.5)
                 Predict: 5.169529473328934
                Else (feature 6 > 11.5)
                 Predict: 5.64532826553334
               Else (feature 6 > 12.5)
                If (feature 6 <= 23.5)
                 Predict: 4.931986913045783
                Else (feature 6 > 23.5)
                 Predict: 5.159055299214529
              Else (feature 12 > 0.5411748509607731)
               If (feature 8 <= 6.5)
                If (feature 4 <= -73.97964096069336)
                 Predict: 5.412354138316065
                Else (feature 4 > -73.97964096069336)
                 Predict: 5.087274005012708
               Else (feature 8 > 6.5)
                If (feature 6 <= 19.5)
                 Predict: 5.625005978466333
                Else (feature 6 > 19.5)
                 Predict: 5.409978097803953
             Else (feature 7 > 5.5)
              If (feature 5 <= 40.715227127075195)
               If (feature 1 <= 1.5)
                Predict: 5.030437921392435
               Else (feature 1 > 1.5)
                Predict: 5.099866427824198
              Else (feature 5 > 40.715227127075195)
               If (feature 6 <= 4.5)
                If (feature 0 <= 1.5)
                 Predict: 6.492239835020471
                Else (feature 0 > 1.5)
                 Predict: 6.647688373563329
               Else (feature 6 > 4.5)
                If (feature 4 <= -73.9822883605957)
                 Predict: 5.049856007249537
                Else (feature 4 > -73.9822883605957)
                 Predict: 5.750330868166311
            Else (feature 2 > -73.9843864440918)
             If (feature 1 <= 2.5)
              If (feature 12 <= 0.5411748509607731)
               If (feature 4 <= -73.9822883605957)
                If (feature 8 <= 6.5)
                 Predict: 4.743274039252189
                Else (feature 8 > 6.5)
                 Predict: 4.443450893648953
               Else (feature 4 > -73.9822883605957)
                If (feature 6 <= 3.5)
                 Predict: 5.524537969668452
                Else (feature 6 > 3.5)
                 Predict: 5.10073391259385
              Else (feature 12 > 0.5411748509607731)
               If (feature 6 <= 5.5)
                If (feature 6 <= 1.5)
                 Predict: 5.351902549027146
                Else (feature 6 > 1.5)
                 Predict: 5.001330084363874
               Else (feature 6 > 5.5)
                If (feature 8 <= 6.5)
                 Predict: 5.2225270132244725
                Else (feature 8 > 6.5)
                 Predict: 5.36213996969174
             Else (feature 1 > 2.5)
              If (feature 9 <= 1.5)
               If (feature 6 <= 12.5)
                If (feature 7 <= 5.5)
                 Predict: 5.284688058492664
                Else (feature 7 > 5.5)
                 Predict: 6.541029999189902
               Else (feature 6 > 12.5)
                If (feature 6 <= 26.5)
                 Predict: 7.103586425546666
                Else (feature 6 > 26.5)
                 Predict: 5.557937427731542
              Else (feature 9 > 1.5)
               If (feature 8 <= 2.5)
                If (feature 1 <= 3.5)
                 Predict: 5.8111409929767
                Else (feature 1 > 3.5)
                 Predict: 5.442417710521793
               Else (feature 8 > 2.5)
                If (feature 4 <= -73.9822883605957)
                 Predict: 5.808142489980444
                Else (feature 4 > -73.9822883605957)
                 Predict: 5.043772807300506
          Else (feature 9 > 6.5)
           If (feature 6 <= 7.5)
            If (feature 8 <= 4.5)
             If (feature 4 <= -73.9822883605957)
              Predict: 7.174724309836376
             Else (feature 4 > -73.9822883605957)
              If (feature 2 <= -73.97615814208984)
               If (feature 4 <= -73.97363662719727)
                If (feature 0 <= 1.5)
                 Predict: 6.561030665896573
                Else (feature 0 > 1.5)
                 Predict: 6.6720329454610665
               Else (feature 4 > -73.97363662719727)
                Predict: 6.875232087276576
              Else (feature 2 > -73.97615814208984)
               Predict: 6.2766434893416445
            Else (feature 8 > 4.5)
             If (feature 6 <= 3.5)
              If (feature 1 <= 1.5)
               Predict: 6.052089168924417
              Else (feature 1 > 1.5)
               Predict: 7.063903961472069
             Else (feature 6 > 3.5)
              If (feature 7 <= 1.5)
               Predict: 6.270988431858299
              Else (feature 7 > 1.5)
               If (feature 6 <= 5.5)
                If (feature 0 <= 1.5)
                 Predict: 5.645446897643238
                Else (feature 0 > 1.5)
                 Predict: 5.583496308781699
               Else (feature 6 > 5.5)
                If (feature 0 <= 1.5)
                 Predict: 5.786897381366708
                Else (feature 0 > 1.5)
                 Predict: 5.805134968916488
           Else (feature 6 > 7.5)
            If (feature 4 <= -73.93750762939453)
             If (feature 2 <= -73.98566055297852)
              If (feature 6 <= 21.5)
               If (feature 4 <= -73.9822883605957)
                Predict: 5.488937726156687
               Else (feature 4 > -73.9822883605957)
                If (feature 4 <= -73.97964096069336)
                 Predict: 5.805134968916488
                Else (feature 4 > -73.97964096069336)
                 Predict: 5.6698809229805205
              Else (feature 6 > 21.5)
               If (feature 0 <= 1.5)
                Predict: 5.87493073085203
               Else (feature 0 > 1.5)
                Predict: 6.023447592961032
             Else (feature 2 > -73.98566055297852)
              If (feature 1 <= 5.5)
               If (feature 8 <= 6.5)
                If (feature 0 <= 1.5)
                 Predict: 5.1946332434409666
                Else (feature 0 > 1.5)
                 Predict: 4.795889471070735
               Else (feature 8 > 6.5)
                Predict: 5.899897353582489
              Else (feature 1 > 5.5)
               Predict: 6.1180971980413545
            Else (feature 4 > -73.93750762939453)
             If (feature 8 <= 1.5)
              If (feature 3 <= 40.70049476623535)
               Predict: 5.598421958998375
              Else (feature 3 > 40.70049476623535)
               Predict: 5.9610053396232745
             Else (feature 8 > 1.5)
              Predict: 6.792344427470809
        Else (feature 4 > -73.90609741210938)
         If (feature 9 <= 0.5)
          If (feature 12 <= 0.6832829369247846)
           If (feature 2 <= -73.87301254272461)
            If (feature 12 <= 0.5411748509607731)
             If (feature 3 <= 40.70049476623535)
              If (feature 0 <= 1.5)
               Predict: 7.699842407396986
              Else (feature 0 > 1.5)
               Predict: 8.051659556841953
             Else (feature 3 > 40.70049476623535)
              Predict: 7.040536390215957
            Else (feature 12 > 0.5411748509607731)
             Predict: 6.5337888379333435
           Else (feature 2 > -73.87301254272461)
            If (feature 7 <= 5.5)
             If (feature 6 <= 16.5)
              If (feature 5 <= 40.68699073791504)
               If (feature 8 <= 6.5)
                If (feature 8 <= 5.5)
                 Predict: 6.259942160987148
                Else (feature 8 > 5.5)
                 Predict: 6.011267174404161
               Else (feature 8 > 6.5)
                If (feature 1 <= 1.5)
                 Predict: 6.697034247666484
                Else (feature 1 > 1.5)
                 Predict: 6.448889394146858
              Else (feature 5 > 40.68699073791504)
               Predict: 6.773080375655539
             Else (feature 6 > 16.5)
              If (feature 6 <= 24.5)
               Predict: 6.86484777797086
              Else (feature 6 > 24.5)
               Predict: 7.05617528410041
            Else (feature 7 > 5.5)
             If (feature 8 <= 1.5)
              Predict: 6.434546518787453
             Else (feature 8 > 1.5)
              If (feature 6 <= 4.5)
               Predict: 7.221105098182496
              Else (feature 6 > 4.5)
               Predict: 7.393263094763838
          Else (feature 12 > 0.6832829369247846)
           Predict: 5.192956850890212
         Else (feature 9 > 0.5)
          If (feature 1 <= 4.5)
           If (feature 0 <= 1.5)
            If (feature 3 <= 40.70049476623535)
             If (feature 2 <= -73.7819595336914)
              If (feature 12 <= 0.5411748509607731)
               If (feature 7 <= 3.5)
                If (feature 8 <= 1.5)
                 Predict: 7.584773077612199
                Else (feature 8 > 1.5)
                 Predict: 5.763721002158817
               Else (feature 7 > 3.5)
                If (feature 10 <= 0.5)
                 Predict: 4.65270253451985
                Else (feature 10 > 0.5)
                 Predict: 6.517671272912274
              Else (feature 12 > 0.5411748509607731)
               If (feature 8 <= 1.5)
                Predict: 7.787382026484701
               Else (feature 8 > 1.5)
                If (feature 6 <= 18.5)
                 Predict: 6.1284422870398885
                Else (feature 6 > 18.5)
                 Predict: 6.398594934535208
             Else (feature 2 > -73.7819595336914)
              If (feature 1 <= 1.5)
               If (feature 7 <= 1.5)
                Predict: 4.219507705176107
               Else (feature 7 > 1.5)
                If (feature 7 <= 4.5)
                 Predict: 5.052805868313131
                Else (feature 7 > 4.5)
                 Predict: 4.643650706556157
              Else (feature 1 > 1.5)
               If (feature 6 <= 2.5)
                Predict: 5.0106352940962555
               Else (feature 6 > 2.5)
                Predict: 5.971261839790463
            Else (feature 3 > 40.70049476623535)
             If (feature 3 <= 40.7199821472168)
              If (feature 6 <= 26.5)
               Predict: 4.976733742420574
              Else (feature 6 > 26.5)
               Predict: 4.718498871295093
             Else (feature 3 > 40.7199821472168)
              If (feature 1 <= 1.5)
               Predict: 4.5217885770490405
              Else (feature 1 > 1.5)
               Predict: 4.442651256490317
           Else (feature 0 > 1.5)
            If (feature 6 <= 16.5)
             If (feature 8 <= 1.5)
              If (feature 9 <= 4.5)
               If (feature 5 <= 40.68699073791504)
                If (feature 9 <= 2.5)
                 Predict: 4.912654885736052
                Else (feature 9 > 2.5)
                 Predict: 5.94170974206717
               Else (feature 5 > 40.68699073791504)
                Predict: 6.338594078203183
              Else (feature 9 > 4.5)
               If (feature 1 <= 1.5)
                If (feature 4 <= -73.7901611328125)
                 Predict: 7.397561535524052
                Else (feature 4 > -73.7901611328125)
                 Predict: 7.295735072749282
               Else (feature 1 > 1.5)
                Predict: 7.534228326274091
             Else (feature 8 > 1.5)
              If (feature 8 <= 4.5)
               If (feature 2 <= -73.7819595336914)
                If (feature 6 <= 15.5)
                 Predict: 4.645183443326517
                Else (feature 6 > 15.5)
                 Predict: 5.662960480135943
               Else (feature 2 > -73.7819595336914)
                If (feature 9 <= 6.5)
                 Predict: 5.3378384702180135
                Else (feature 9 > 6.5)
                 Predict: 6.454930256326172
              Else (feature 8 > 4.5)
               If (feature 5 <= 40.70734977722168)
                If (feature 2 <= -73.7819595336914)
                 Predict: 5.848335331434463
                Else (feature 2 > -73.7819595336914)
                 Predict: 4.812184355372416
               Else (feature 5 > 40.70734977722168)
                If (feature 3 <= 40.71390151977539)
                 Predict: 7.44716835960004
                Else (feature 3 > 40.71390151977539)
                 Predict: 6.582025138892826
            Else (feature 6 > 16.5)
             If (feature 6 <= 22.5)
              If (feature 5 <= 40.72110557556152)
               If (feature 1 <= 1.5)
                If (feature 8 <= 6.5)
                 Predict: 6.964405253130636
                Else (feature 8 > 6.5)
                 Predict: 7.368163715694269
               Else (feature 1 > 1.5)
                Predict: 7.708410667257368
              Else (feature 5 > 40.72110557556152)
               Predict: 5.303304908059076
             Else (feature 6 > 22.5)
              If (feature 6 <= 25.5)
               If (feature 1 <= 1.5)
                Predict: 6.194405391104672
               Else (feature 1 > 1.5)
                Predict: 6.089044875446847
              Else (feature 6 > 25.5)
               If (feature 1 <= 1.5)
                If (feature 6 <= 27.5)
                 Predict: 5.298317366548036
                Else (feature 6 > 27.5)
                 Predict: 5.220355825078324
               Else (feature 1 > 1.5)
                If (feature 2 <= -73.7819595336914)
                 Predict: 5.5909869805108565
                Else (feature 2 > -73.7819595336914)
                 Predict: 5.648974238161206
          Else (feature 1 > 4.5)
           If (feature 9 <= 4.5)
            If (feature 9 <= 2.5)
             If (feature 6 <= 7.5)
              Predict: 7.2196420401307355
             Else (feature 6 > 7.5)
              If (feature 6 <= 24.5)
               If (feature 1 <= 5.5)
                Predict: 6.616065185132817
               Else (feature 1 > 5.5)
                Predict: 6.839476438228844
              Else (feature 6 > 24.5)
               Predict: 6.551080335043405
            Else (feature 9 > 2.5)
             Predict: 5.583496308781701
           Else (feature 9 > 4.5)
            Predict: 9.266248003914477
       Else (feature 5 > 40.72550392150879)
        If (feature 9 <= 6.5)
         If (feature 9 <= 4.5)
          If (feature 4 <= -74.00348281860352)
           If (feature 12 <= 0.5411748509607731)
            If (feature 5 <= 40.7394962310791)
             If (feature 8 <= 4.5)
              If (feature 6 <= 27.5)
               If (feature 2 <= -74.00307083129883)
                If (feature 1 <= 1.5)
                 Predict: 5.709678440504723
                Else (feature 1 > 1.5)
                 Predict: 5.13696671570351
               Else (feature 2 > -74.00307083129883)
                If (feature 9 <= 3.5)
                 Predict: 5.075892117083007
                Else (feature 9 > 3.5)
                 Predict: 5.9869883201589715
              Else (feature 6 > 27.5)
               If (feature 7 <= 2.5)
                If (feature 0 <= 1.5)
                 Predict: 4.987019604243536
                Else (feature 0 > 1.5)
                 Predict: 5.075173815233827
               Else (feature 7 > 2.5)
                If (feature 0 <= 1.5)
                 Predict: 4.1588830833596715
                Else (feature 0 > 1.5)
                 Predict: 4.532599493153257
             Else (feature 8 > 4.5)
              If (feature 3 <= 40.72774314880371)
               If (feature 0 <= 1.5)
                Predict: 6.169610732491456
               Else (feature 0 > 1.5)
                Predict: 6.872128101338987
              Else (feature 3 > 40.72774314880371)
               If (feature 2 <= -74.00857543945312)
                If (feature 8 <= 5.5)
                 Predict: 4.189654742026425
                Else (feature 8 > 5.5)
                 Predict: 4.269477341598876
               Else (feature 2 > -74.00857543945312)
                If (feature 9 <= 1.5)
                 Predict: 5.273100572791486
                Else (feature 9 > 1.5)
                 Predict: 5.002088505981302
            Else (feature 5 > 40.7394962310791)
             If (feature 8 <= 1.5)
              If (feature 7 <= 5.5)
               If (feature 6 <= 15.5)
                If (feature 6 <= 7.5)
                 Predict: 5.623608721875409
                Else (feature 6 > 7.5)
                 Predict: 6.173895003143949
               Else (feature 6 > 15.5)
                If (feature 2 <= -74.00307083129883)
                 Predict: 5.653613136960793
                Else (feature 2 > -74.00307083129883)
                 Predict: 4.900665596371105
              Else (feature 7 > 5.5)
               If (feature 3 <= 40.744455337524414)
                If (feature 2 <= -74.00589370727539)
                 Predict: 5.068884424130397
                Else (feature 2 > -74.00589370727539)
                 Predict: 5.350890895160602
               Else (feature 3 > 40.744455337524414)
                If (feature 9 <= 0.5)
                 Predict: 5.278114659230518
                Else (feature 9 > 0.5)
                 Predict: 4.430816798843313
             Else (feature 8 > 1.5)
              If (feature 5 <= 40.74929618835449)
               If (feature 5 <= 40.744436264038086)
                If (feature 8 <= 3.5)
                 Predict: 5.286058760131684
                Else (feature 8 > 3.5)
                 Predict: 5.535948147446991
               Else (feature 5 > 40.744436264038086)
                If (feature 6 <= 1.5)
                 Predict: 4.1588830833596715
                Else (feature 6 > 1.5)
                 Predict: 5.267865856393537
              Else (feature 5 > 40.74929618835449)
               If (feature 8 <= 6.5)
                If (feature 3 <= 40.75045967102051)
                 Predict: 6.75343791859778
                Else (feature 3 > 40.75045967102051)
                 Predict: 6.131684846566962
               Else (feature 8 > 6.5)
                Predict: 4.787491742782045
           Else (feature 12 > 0.5411748509607731)
            If (feature 9 <= 3.5)
             If (feature 3 <= 40.75423812866211)
              If (feature 7 <= 5.5)
               If (feature 5 <= 40.72939491271973)
                If (feature 8 <= 6.5)
                 Predict: 5.30439290154442
                Else (feature 8 > 6.5)
                 Predict: 5.65952258088721
               Else (feature 5 > 40.72939491271973)
                If (feature 5 <= 40.74201011657715)
                 Predict: 5.745293987994704
                Else (feature 5 > 40.74201011657715)
                 Predict: 5.614627379572665
              Else (feature 7 > 5.5)
               If (feature 9 <= 2.5)
                If (feature 1 <= 2.5)
                 Predict: 5.424701875253255
                Else (feature 1 > 2.5)
                 Predict: 5.866761641187239
               Else (feature 9 > 2.5)
                If (feature 6 <= 20.5)
                 Predict: 4.819949835826058
                Else (feature 6 > 20.5)
                 Predict: 6.056784013228626
             Else (feature 3 > 40.75423812866211)
              Predict: 6.903747257584655
            Else (feature 9 > 3.5)
             If (feature 4 <= -74.00582504272461)
              If (feature 4 <= -74.00924682617188)
               If (feature 1 <= 1.5)
                Predict: 5.910796644040527
               Else (feature 1 > 1.5)
                Predict: 6.124683390894205
              Else (feature 4 > -74.00924682617188)
               If (feature 12 <= 0.6832829369247846)
                If (feature 8 <= 4.5)
                 Predict: 5.244246923297169
                Else (feature 8 > 4.5)
                 Predict: 5.567933383218704
               Else (feature 12 > 0.6832829369247846)
                If (feature 1 <= 1.5)
                 Predict: 5.779102355584494
                Else (feature 1 > 1.5)
                 Predict: 5.659482215759622
             Else (feature 4 > -74.00582504272461)
              If (feature 8 <= 2.5)
               If (feature 7 <= 3.5)
                If (feature 7 <= 2.5)
                 Predict: 5.547134364337808
                Else (feature 7 > 2.5)
                 Predict: 5.755742213586913
               Else (feature 7 > 3.5)
                If (feature 2 <= -74.00307083129883)
                 Predict: 5.093750200806762
                Else (feature 2 > -74.00307083129883)
                 Predict: 4.997212273764114
              Else (feature 8 > 2.5)
               If (feature 2 <= -74.00307083129883)
                If (feature 7 <= 2.5)
                 Predict: 4.422168166374465
                Else (feature 7 > 2.5)
                 Predict: 4.70475952291828
               Else (feature 2 > -74.00307083129883)
                If (feature 6 <= 3.5)
                 Predict: 5.834810737062605
                Else (feature 6 > 3.5)
                 Predict: 5.1688914791728635
          Else (feature 4 > -74.00348281860352)
           If (feature 12 <= 0.6832829369247846)
            If (feature 9 <= 2.5)
             If (feature 4 <= -73.98101043701172)
              If (feature 8 <= 1.5)
               If (feature 9 <= 0.5)
                If (feature 10 <= 0.5)
                 Predict: 5.521188979003464
                Else (feature 10 > 0.5)
                 Predict: 7.412764017426525
               Else (feature 9 > 0.5)
                If (feature 6 <= 14.5)
                 Predict: 5.492662355496631
                Else (feature 6 > 14.5)
                 Predict: 5.317042135079412
              Else (feature 8 > 1.5)
               If (feature 3 <= 40.76552772521973)
                If (feature 3 <= 40.7402286529541)
                 Predict: 5.305786315002283
                Else (feature 3 > 40.7402286529541)
                 Predict: 5.381600461368925
               Else (feature 3 > 40.76552772521973)
                If (feature 2 <= -73.98566055297852)
                 Predict: 4.86771086638582
                Else (feature 2 > -73.98566055297852)
                 Predict: 5.264217465068599
             Else (feature 4 > -73.98101043701172)
              If (feature 10 <= 0.5)
               If (feature 2 <= -73.87301254272461)
                If (feature 1 <= 1.5)
                 Predict: 5.242488752662267
                Else (feature 1 > 1.5)
                 Predict: 5.335169240750781
               Else (feature 2 > -73.87301254272461)
                If (feature 6 <= 25.5)
                 Predict: 5.628104235632035
                Else (feature 6 > 25.5)
                 Predict: 7.7811385098450145
              Else (feature 10 > 0.5)
               If (feature 2 <= -73.97245407104492)
                Predict: 5.111987788356544
               Else (feature 2 > -73.97245407104492)
                If (feature 3 <= 40.74919319152832)
                 Predict: 7.3914152346753585
                Else (feature 3 > 40.74919319152832)
                 Predict: 6.584791392385716
            Else (feature 9 > 2.5)
             If (feature 6 <= 6.5)
              If (feature 5 <= 40.761552810668945)
               If (feature 4 <= -73.99472427368164)
                If (feature 7 <= 2.5)
                 Predict: 5.3722233201635605
                Else (feature 7 > 2.5)
                 Predict: 4.989460772264794
               Else (feature 4 > -73.99472427368164)
                If (feature 7 <= 5.5)
                 Predict: 5.39976233952075
                Else (feature 7 > 5.5)
                 Predict: 5.839955960366129
              Else (feature 5 > 40.761552810668945)
               If (feature 2 <= -73.98288345336914)
                If (feature 12 <= 0.5411748509607731)
                 Predict: 4.8298160193327515
                Else (feature 12 > 0.5411748509607731)
                 Predict: 5.32988305237777
               Else (feature 2 > -73.98288345336914)
                If (feature 1 <= 1.5)
                 Predict: 5.683500850317178
                Else (feature 1 > 1.5)
                 Predict: 4.838595697111674
             Else (feature 6 > 6.5)
              If (feature 3 <= 40.75753593444824)
               If (feature 4 <= -73.95188522338867)
                If (feature 4 <= -73.98514175415039)
                 Predict: 5.261828825812214
                Else (feature 4 > -73.98514175415039)
                 Predict: 5.157964841455108
               Else (feature 4 > -73.95188522338867)
                If (feature 0 <= 1.5)
                 Predict: 5.744550785267773
                Else (feature 0 > 1.5)
                 Predict: 5.050349859201626
              Else (feature 3 > 40.75753593444824)
               If (feature 2 <= -73.98566055297852)
                If (feature 1 <= 5.5)
                 Predict: 4.9891534883492525
                Else (feature 1 > 5.5)
                 Predict: 5.608262232627188
               Else (feature 2 > -73.98566055297852)
                If (feature 4 <= -73.97521591186523)
                 Predict: 5.46035984320719
                Else (feature 4 > -73.97521591186523)
                 Predict: 5.0944445864715435
           Else (feature 12 > 0.6832829369247846)
            If (feature 5 <= 40.72939491271973)
             If (feature 9 <= 1.5)
              If (feature 6 <= 23.5)
               If (feature 7 <= 4.5)
                If (feature 0 <= 1.5)
                 Predict: 5.537975255161017
                Else (feature 0 > 1.5)
                 Predict: 5.760434306640384
               Else (feature 7 > 4.5)
                If (feature 1 <= 2.5)
                 Predict: 5.814796525693492
                Else (feature 1 > 2.5)
                 Predict: 6.279315453765929
              Else (feature 6 > 23.5)
               If (feature 8 <= 5.5)
                If (feature 2 <= -73.99174880981445)
                 Predict: 5.536799893085953
                Else (feature 2 > -73.99174880981445)
                 Predict: 5.214500773286303
               Else (feature 8 > 5.5)
                If (feature 4 <= -73.98514175415039)
                 Predict: 5.498013024590391
                Else (feature 4 > -73.98514175415039)
                 Predict: 5.991664341386055
             Else (feature 9 > 1.5)
              If (feature 4 <= -73.98514175415039)
               If (feature 2 <= -73.9808464050293)
                If (feature 2 <= -73.98288345336914)
                 Predict: 5.561647042640671
                Else (feature 2 > -73.98288345336914)
                 Predict: 5.098003950814075
               Else (feature 2 > -73.9808464050293)
                Predict: 6.297109319933952
              Else (feature 4 > -73.98514175415039)
               If (feature 1 <= 2.5)
                If (feature 7 <= 4.5)
                 Predict: 5.085499464438808
                Else (feature 7 > 4.5)
                 Predict: 5.6157116827726865
               Else (feature 1 > 2.5)
                If (feature 2 <= -73.98566055297852)
                 Predict: 5.623290055321963
                Else (feature 2 > -73.98566055297852)
                 Predict: 6.487684018484611
            Else (feature 5 > 40.72939491271973)
             If (feature 2 <= -73.97024536132812)
              If (feature 8 <= 1.5)
               If (feature 9 <= 0.5)
                If (feature 1 <= 5.5)
                 Predict: 5.560331040494629
                Else (feature 1 > 5.5)
                 Predict: 4.4886363697321485
               Else (feature 9 > 0.5)
                If (feature 1 <= 1.5)
                 Predict: 5.356096312076595
                Else (feature 1 > 1.5)
                 Predict: 5.536869541465051
              Else (feature 8 > 1.5)
               If (feature 8 <= 4.5)
                If (feature 4 <= -73.99472427368164)
                 Predict: 5.122902884603174
                Else (feature 4 > -73.99472427368164)
                 Predict: 5.302427823550031
               Else (feature 8 > 4.5)
                If (feature 6 <= 1.5)
                 Predict: 5.635810009943584
                Else (feature 6 > 1.5)
                 Predict: 5.408486036447171
             Else (feature 2 > -73.97024536132812)
              If (feature 4 <= -73.90609741210938)
               If (feature 5 <= 40.75464057922363)
                If (feature 7 <= 1.5)
                 Predict: 5.352171940662082
                Else (feature 7 > 1.5)
                 Predict: 4.970744488425225
               Else (feature 5 > 40.75464057922363)
                If (feature 4 <= -73.96052932739258)
                 Predict: 5.39140857414775
                Else (feature 4 > -73.96052932739258)
                 Predict: 5.156908266510638
              Else (feature 4 > -73.90609741210938)
               If (feature 6 <= 8.5)
                If (feature 0 <= 1.5)
                 Predict: 6.115892125483034
                Else (feature 0 > 1.5)
                 Predict: 7.58273848891441
               Else (feature 6 > 8.5)
                If (feature 6 <= 27.5)
                 Predict: 5.383714014177437
                Else (feature 6 > 27.5)
                 Predict: 6.2995756234806874
         Else (feature 9 > 4.5)
          If (feature 12 <= 0.6832829369247846)
           If (feature 8 <= 5.5)
            If (feature 8 <= 1.5)
             If (feature 2 <= -73.97918319702148)
              If (feature 6 <= 20.5)
               If (feature 2 <= -74.0004997253418)
                If (feature 3 <= 40.74228858947754)
                 Predict: 4.541772702263249
                Else (feature 3 > 40.74228858947754)
                 Predict: 5.009211045314114
               Else (feature 2 > -74.0004997253418)
                If (feature 2 <= -73.99353408813477)
                 Predict: 5.723423849449303
                Else (feature 2 > -73.99353408813477)
                 Predict: 5.191883226815471
              Else (feature 6 > 20.5)
               If (feature 1 <= 3.5)
                If (feature 4 <= -73.9867057800293)
                 Predict: 5.15888839319583
                Else (feature 4 > -73.9867057800293)
                 Predict: 4.853400195460151
               Else (feature 1 > 3.5)
                If (feature 2 <= -73.98949813842773)
                 Predict: 4.465313234586789
                Else (feature 2 > -73.98949813842773)
                 Predict: 4.189654742026425
             Else (feature 2 > -73.97918319702148)
              If (feature 6 <= 6.5)
               If (feature 5 <= 40.74929618835449)
                If (feature 0 <= 1.5)
                 Predict: 4.189654742026425
                Else (feature 0 > 1.5)
                 Predict: 5.099866427824198
               Else (feature 5 > 40.74929618835449)
                If (feature 3 <= 40.759260177612305)
                 Predict: 5.174150868452802
                Else (feature 3 > 40.759260177612305)
                 Predict: 4.986989421287963
              Else (feature 6 > 6.5)
               If (feature 3 <= 40.74678421020508)
                If (feature 0 <= 1.5)
                 Predict: 5.385115416785835
                Else (feature 0 > 1.5)
                 Predict: 6.811270438211004
               Else (feature 3 > 40.74678421020508)
                If (feature 3 <= 40.764020919799805)
                 Predict: 5.2425076681806875
                Else (feature 3 > 40.764020919799805)
                 Predict: 6.0448718735793845
            Else (feature 8 > 1.5)
             If (feature 5 <= 40.7394962310791)
              If (feature 1 <= 5.5)
               If (feature 3 <= 40.734514236450195)
                If (feature 2 <= -73.97785949707031)
                 Predict: 4.988089493668884
                Else (feature 2 > -73.97785949707031)
                 Predict: 5.777652323222668
               Else (feature 3 > 40.734514236450195)
                If (feature 1 <= 2.5)
                 Predict: 4.730829358809623
                Else (feature 1 > 2.5)
                 Predict: 5.17706955439791
              Else (feature 1 > 5.5)
               Predict: 6.651571873589717
             Else (feature 5 > 40.7394962310791)
              If (feature 4 <= -73.97831344604492)
               If (feature 4 <= -73.98974990844727)
                If (feature 12 <= 0.5411748509607731)
                 Predict: 5.117139447197445
                Else (feature 12 > 0.5411748509607731)
                 Predict: 4.920046111007885
               Else (feature 4 > -73.98974990844727)
                If (feature 5 <= 40.75992202758789)
                 Predict: 5.266018278511329
                Else (feature 5 > 40.75992202758789)
                 Predict: 5.030311935257386
              Else (feature 4 > -73.97831344604492)
               If (feature 12 <= 0.5411748509607731)
                If (feature 2 <= -73.9677734375)
                 Predict: 4.828936075949197
                Else (feature 2 > -73.9677734375)
                 Predict: 4.989650438609706
               Else (feature 12 > 0.5411748509607731)
                If (feature 3 <= 40.76067352294922)
                 Predict: 5.033769711654862
                Else (feature 3 > 40.76067352294922)
                 Predict: 5.180467273380438
           Else (feature 8 > 5.5)
            If (feature 2 <= -73.98288345336914)
             If (feature 3 <= 40.75423812866211)
              If (feature 2 <= -74.00589370727539)
               If (feature 0 <= 1.5)
                Predict: 5.659482215759621
               Else (feature 0 > 1.5)
                Predict: 6.558197802812269
              Else (feature 2 > -74.00589370727539)
               If (feature 6 <= 2.5)
                If (feature 2 <= -73.99511337280273)
                 Predict: 4.964638287728566
                Else (feature 2 > -73.99511337280273)
                 Predict: 6.098953281984735
               Else (feature 6 > 2.5)
                If (feature 4 <= -73.99260330200195)
                 Predict: 5.259562636390525
                Else (feature 4 > -73.99260330200195)
                 Predict: 5.0234931050730935
             Else (feature 3 > 40.75423812866211)
              If (feature 4 <= -73.99702453613281)
               If (feature 2 <= -73.99174880981445)
                If (feature 0 <= 1.5)
                 Predict: 4.294383805970352
                Else (feature 0 > 1.5)
                 Predict: 4.2121001622835355
               Else (feature 2 > -73.99174880981445)
                Predict: 5.41164605185504
              Else (feature 4 > -73.99702453613281)
               If (feature 6 <= 29.5)
                If (feature 2 <= -73.9843864440918)
                 Predict: 5.039023014518328
                Else (feature 2 > -73.9843864440918)
                 Predict: 4.577946842306005
               Else (feature 6 > 29.5)
                If (feature 2 <= -73.98566055297852)
                 Predict: 4.174387269895637
                Else (feature 2 > -73.98566055297852)
                 Predict: 4.304065093204168
            Else (feature 2 > -73.98288345336914)
             If (feature 6 <= 29.5)
              If (feature 2 <= -73.97024536132812)
               If (feature 3 <= 40.764020919799805)
                If (feature 6 <= 12.5)
                 Predict: 5.48173450309312
                Else (feature 6 > 12.5)
                 Predict: 5.231450934779313
               Else (feature 3 > 40.764020919799805)
                If (feature 8 <= 6.5)
                 Predict: 5.227609204937444
                Else (feature 8 > 6.5)
                 Predict: 6.832979530948077
              Else (feature 2 > -73.97024536132812)
               If (feature 5 <= 40.75085639953613)
                Predict: 6.257667587882639
               Else (feature 5 > 40.75085639953613)
                If (feature 5 <= 40.761552810668945)
                 Predict: 4.8720921828041845
                Else (feature 5 > 40.761552810668945)
                 Predict: 5.235964169817601
             Else (feature 6 > 29.5)
              Predict: 7.545389749611786
          Else (feature 12 > 0.6832829369247846)
           If (feature 4 <= -73.99260330200195)
            If (feature 4 <= -74.00582504272461)
             If (feature 6 <= 24.5)
              If (feature 7 <= 3.5)
               If (feature 8 <= 3.5)
                Predict: 5.318119993844216
               Else (feature 8 > 3.5)
                If (feature 2 <= -74.00589370727539)
                 Predict: 5.062595033026967
                Else (feature 2 > -74.00589370727539)
                 Predict: 4.851755530251728
              Else (feature 7 > 3.5)
               If (feature 3 <= 40.7402286529541)
                If (feature 2 <= -74.00589370727539)
                 Predict: 5.102684172193861
                Else (feature 2 > -74.00589370727539)
                 Predict: 5.379461588570483
               Else (feature 3 > 40.7402286529541)
                If (feature 3 <= 40.744455337524414)
                 Predict: 5.918893854273146
                Else (feature 3 > 40.744455337524414)
                 Predict: 5.966146739123691
             Else (feature 6 > 24.5)
              If (feature 3 <= 40.734514236450195)
               Predict: 5.817111159963204
              Else (feature 3 > 40.734514236450195)
               Predict: 6.196444127794521
            Else (feature 4 > -74.00582504272461)
             If (feature 5 <= 40.72939491271973)
              If (feature 0 <= 1.5)
               If (feature 4 <= -73.99472427368164)
                Predict: 4.356708826689592
               Else (feature 4 > -73.99472427368164)
                Predict: 4.248495242049359
              Else (feature 0 > 1.5)
               Predict: 4.859812404361671
             Else (feature 5 > 40.72939491271973)
              If (feature 2 <= -73.99174880981445)
               If (feature 6 <= 21.5)
                If (feature 5 <= 40.7366943359375)
                 Predict: 5.411642219955283
                Else (feature 5 > 40.7366943359375)
                 Predict: 5.051622420744933
               Else (feature 6 > 21.5)
                If (feature 5 <= 40.756343841552734)
                 Predict: 4.8199658186514585
                Else (feature 5 > 40.756343841552734)
                 Predict: 5.65727384715062
              Else (feature 2 > -73.99174880981445)
               If (feature 0 <= 1.5)
                If (feature 3 <= 40.75617027282715)
                 Predict: 5.19422197971552
                Else (feature 3 > 40.75617027282715)
                 Predict: 4.782636198939137
               Else (feature 0 > 1.5)
                If (feature 3 <= 40.75423812866211)
                 Predict: 5.191950779662417
                Else (feature 3 > 40.75423812866211)
                 Predict: 5.818925749974111
           Else (feature 4 > -73.99260330200195)
            If (feature 4 <= -73.97831344604492)
             If (feature 4 <= -73.9822883605957)
              If (feature 5 <= 40.74201011657715)
               If (feature 4 <= -73.98368453979492)
                If (feature 2 <= -73.98566055297852)
                 Predict: 5.078410905133921
                Else (feature 2 > -73.98566055297852)
                 Predict: 5.375455701169988
               Else (feature 4 > -73.98368453979492)
                If (feature 6 <= 22.5)
                 Predict: 4.5480547628400085
                Else (feature 6 > 22.5)
                 Predict: 5.163750353217478
              Else (feature 5 > 40.74201011657715)
               If (feature 5 <= 40.75992202758789)
                If (feature 6 <= 4.5)
                 Predict: 5.1699872648198015
                Else (feature 6 > 4.5)
                 Predict: 5.392660348525089
               Else (feature 5 > 40.75992202758789)
                If (feature 3 <= 40.764020919799805)
                 Predict: 5.081468307981696
                Else (feature 3 > 40.764020919799805)
                 Predict: 5.420338029176768
             Else (feature 4 > -73.9822883605957)
              If (feature 5 <= 40.766977310180664)
               If (feature 8 <= 3.5)
                If (feature 9 <= 5.5)
                 Predict: 6.099783010561559
                Else (feature 9 > 5.5)
                 Predict: 5.511059767343288
               Else (feature 8 > 3.5)
                If (feature 6 <= 22.5)
                 Predict: 5.463384356637827
                Else (feature 6 > 22.5)
                 Predict: 5.192136700807178
              Else (feature 5 > 40.766977310180664)
               If (feature 2 <= -73.9819450378418)
                If (feature 1 <= 1.5)
                 Predict: 4.8283137373023015
                Else (feature 1 > 1.5)
                 Predict: 4.836281906951478
               Else (feature 2 > -73.9819450378418)
                Predict: 5.1647859739235145
            Else (feature 4 > -73.97831344604492)
             If (feature 7 <= 1.5)
              If (feature 6 <= 19.5)
               If (feature 5 <= 40.74201011657715)
                If (feature 0 <= 1.5)
                 Predict: 5.795341242763483
                Else (feature 0 > 1.5)
                 Predict: 5.318119993844217
               Else (feature 5 > 40.74201011657715)
                If (feature 2 <= -73.96162796020508)
                 Predict: 5.015060640460808
                Else (feature 2 > -73.96162796020508)
                 Predict: 5.488507239425935
              Else (feature 6 > 19.5)
               If (feature 6 <= 27.5)
                If (feature 6 <= 25.5)
                 Predict: 5.604975504975239
                Else (feature 6 > 25.5)
                 Predict: 5.946074007668964
               Else (feature 6 > 27.5)
                If (feature 0 <= 1.5)
                 Predict: 5.043425116919247
                Else (feature 0 > 1.5)
                 Predict: 4.959188082514939
             Else (feature 7 > 1.5)
              If (feature 1 <= 5.5)
               If (feature 8 <= 3.5)
                If (feature 8 <= 1.5)
                 Predict: 5.044684268960977
                Else (feature 8 > 1.5)
                 Predict: 5.290858335675223
               Else (feature 8 > 3.5)
                If (feature 3 <= 40.76799201965332)
                 Predict: 5.142840412385788
                Else (feature 3 > 40.76799201965332)
                 Predict: 4.914384593650456
              Else (feature 1 > 5.5)
               If (feature 5 <= 40.752546310424805)
                If (feature 2 <= -73.98566055297852)
                 Predict: 5.241747015059643
                Else (feature 2 > -73.98566055297852)
                 Predict: 5.087596335232384
               Else (feature 5 > 40.752546310424805)
                If (feature 7 <= 2.5)
                 Predict: 5.648974238161206
                Else (feature 7 > 2.5)
                 Predict: 5.938812066285271
        Else (feature 9 > 6.5)
         If (feature 8 <= 6.5)
          If (feature 4 <= -73.9692268371582)
           If (feature 12 <= 0.6832829369247846)
            If (feature 4 <= -73.97521591186523)
             If (feature 6 <= 8.5)
              If (feature 1 <= 4.5)
               If (feature 8 <= 2.5)
                If (feature 3 <= 40.75617027282715)
                 Predict: 4.930788535830505
                Else (feature 3 > 40.75617027282715)
                 Predict: 5.2772579460184454
               Else (feature 8 > 2.5)
                If (feature 2 <= -74.00307083129883)
                 Predict: 6.013571810006586
                Else (feature 2 > -74.00307083129883)
                 Predict: 5.30428385175488
              Else (feature 1 > 4.5)
               If (feature 0 <= 1.5)
                Predict: 9.351318965235755
               Else (feature 0 > 1.5)
                If (feature 3 <= 40.73126411437988)
                 Predict: 7.171075386674481
                Else (feature 3 > 40.73126411437988)
                 Predict: 5.423327943061463
             Else (feature 6 > 8.5)
              If (feature 2 <= -73.97615814208984)
               If (feature 1 <= 5.5)
                If (feature 4 <= -73.97831344604492)
                 Predict: 5.407388095371473
                Else (feature 4 > -73.97831344604492)
                 Predict: 5.585433246548911
               Else (feature 1 > 5.5)
                If (feature 6 <= 27.5)
                 Predict: 5.785952224464474
                Else (feature 6 > 27.5)
                 Predict: 7.265429723253959
              Else (feature 2 > -73.97615814208984)
               If (feature 5 <= 40.74201011657715)
                Predict: 7.042286171939743
               Else (feature 5 > 40.74201011657715)
                If (feature 6 <= 15.5)
                 Predict: 5.388477319012329
                Else (feature 6 > 15.5)
                 Predict: 5.754720956913512
            Else (feature 4 > -73.97521591186523)
             If (feature 2 <= -73.97918319702148)
              If (feature 2 <= -73.9819450378418)
               If (feature 0 <= 1.5)
                Predict: 6.175867270105761
               Else (feature 0 > 1.5)
                Predict: 6.369900982828228
              Else (feature 2 > -73.9819450378418)
               If (feature 3 <= 40.76799201965332)
                If (feature 3 <= 40.759260177612305)
                 Predict: 5.525880019054894
                Else (feature 3 > 40.759260177612305)
                 Predict: 5.290843262912889
               Else (feature 3 > 40.76799201965332)
                Predict: 5.9635793436184485
             Else (feature 2 > -73.97918319702148)
              If (feature 12 <= 0.5411748509607731)
               If (feature 7 <= 3.5)
                If (feature 2 <= -73.97615814208984)
                 Predict: 5.341191359010897
                Else (feature 2 > -73.97615814208984)
                 Predict: 4.92478912017102
               Else (feature 7 > 3.5)
                If (feature 8 <= 5.5)
                 Predict: 5.356576032695708
                Else (feature 8 > 5.5)
                 Predict: 4.8618706502874955
              Else (feature 12 > 0.5411748509607731)
               If (feature 3 <= 40.7402286529541)
                If (feature 8 <= 1.5)
                 Predict: 4.276666119016055
                Else (feature 8 > 1.5)
                 Predict: 4.886707096208232
               Else (feature 3 > 40.7402286529541)
                If (feature 5 <= 40.74704360961914)
                 Predict: 5.747846907850365
                Else (feature 5 > 40.74704360961914)
                 Predict: 5.301868932960089
           Else (feature 12 > 0.6832829369247846)
            If (feature 2 <= -73.96484756469727)
             If (feature 8 <= 3.5)
              If (feature 4 <= -73.9822883605957)
               If (feature 3 <= 40.75753593444824)
                If (feature 6 <= 2.5)
                 Predict: 5.67797677571664
                Else (feature 6 > 2.5)
                 Predict: 5.377990886650379
               Else (feature 3 > 40.75753593444824)
                If (feature 2 <= -73.99174880981445)
                 Predict: 5.451657783688108
                Else (feature 2 > -73.99174880981445)
                 Predict: 5.072956780446655
              Else (feature 4 > -73.9822883605957)
               If (feature 2 <= -73.98288345336914)
                If (feature 8 <= 1.5)
                 Predict: 5.115560708146823
                Else (feature 8 > 1.5)
                 Predict: 5.693519790092116
               Else (feature 2 > -73.98288345336914)
                If (feature 7 <= 1.5)
                 Predict: 5.659092704660016
                Else (feature 7 > 1.5)
                 Predict: 5.3854916106749275
             Else (feature 8 > 3.5)
              If (feature 3 <= 40.76998519897461)
               If (feature 8 <= 4.5)
                If (feature 5 <= 40.761552810668945)
                 Predict: 5.6055294798857656
                Else (feature 5 > 40.761552810668945)
                 Predict: 5.3768792999112165
               Else (feature 8 > 4.5)
                If (feature 2 <= -73.99353408813477)
                 Predict: 5.294516054187698
                Else (feature 2 > -73.99353408813477)
                 Predict: 5.473871771373502
              Else (feature 3 > 40.76998519897461)
               If (feature 4 <= -73.9867057800293)
                Predict: 6.695798917058491
               Else (feature 4 > -73.9867057800293)
                If (feature 2 <= -73.98288345336914)
                 Predict: 6.163479793127378
                Else (feature 2 > -73.98288345336914)
                 Predict: 5.258795762877808
            Else (feature 2 > -73.96484756469727)
             If (feature 5 <= 40.761552810668945)
              If (feature 1 <= 1.5)
               If (feature 5 <= 40.758039474487305)
                If (feature 0 <= 1.5)
                 Predict: 5.711965151699333
                Else (feature 0 > 1.5)
                 Predict: 5.95842469302978
               Else (feature 5 > 40.758039474487305)
                If (feature 3 <= 40.75753593444824)
                 Predict: 5.338814601743395
                Else (feature 3 > 40.75753593444824)
                 Predict: 5.676446744134655
              Else (feature 1 > 1.5)
               If (feature 0 <= 1.5)
                Predict: 6.300785794663244
               Else (feature 0 > 1.5)
                Predict: 5.826000107380449
             Else (feature 5 > 40.761552810668945)
              If (feature 4 <= -73.97165298461914)
               Predict: 6.3578422665081
              Else (feature 4 > -73.97165298461914)
               If (feature 3 <= 40.759260177612305)
                Predict: 6.5337888379333435
               Else (feature 3 > 40.759260177612305)
                Predict: 6.582025138892826
          Else (feature 4 > -73.9692268371582)
           If (feature 2 <= -73.87301254272461)
            If (feature 1 <= 1.5)
             If (feature 5 <= 40.7366943359375)
              Predict: 7.213768308118642
             Else (feature 5 > 40.7366943359375)
              If (feature 8 <= 1.5)
               If (feature 6 <= 8.5)
                If (feature 12 <= 0.6832829369247846)
                 Predict: 4.450624605666913
                Else (feature 12 > 0.6832829369247846)
                 Predict: 5.313157443598742
               Else (feature 6 > 8.5)
                If (feature 6 <= 15.5)
                 Predict: 5.464549474159874
                Else (feature 6 > 15.5)
                 Predict: 5.102964846326425
              Else (feature 8 > 1.5)
               If (feature 2 <= -73.95234680175781)
                If (feature 3 <= 40.7623348236084)
                 Predict: 5.400577021644184
                Else (feature 3 > 40.7623348236084)
                 Predict: 5.706976597911811
               Else (feature 2 > -73.95234680175781)
                If (feature 3 <= 40.74919319152832)
                 Predict: 5.782509183509312
                Else (feature 3 > 40.74919319152832)
                 Predict: 5.112452493898476
            Else (feature 1 > 1.5)
             If (feature 12 <= 0.5411748509607731)
              If (feature 6 <= 4.5)
               If (feature 3 <= 40.76998519897461)
                If (feature 8 <= 4.5)
                 Predict: 5.508783753996371
                Else (feature 8 > 4.5)
                 Predict: 5.379897353540461
               Else (feature 3 > 40.76998519897461)
                Predict: 5.231108616854588
              Else (feature 6 > 4.5)
               If (feature 3 <= 40.76998519897461)
                If (feature 5 <= 40.74704360961914)
                 Predict: 5.7025198393874605
                Else (feature 5 > 40.74704360961914)
                 Predict: 6.470101136481387
               Else (feature 3 > 40.76998519897461)
                If (feature 1 <= 3.5)
                 Predict: 5.030437921392435
                Else (feature 1 > 3.5)
                 Predict: 5.402677381872278
             Else (feature 12 > 0.5411748509607731)
              If (feature 3 <= 40.75617027282715)
               If (feature 6 <= 23.5)
                If (feature 1 <= 2.5)
                 Predict: 5.0562381452485985
                Else (feature 1 > 2.5)
                 Predict: 5.3422549758838125
               Else (feature 6 > 23.5)
                Predict: 4.521788577049037
              Else (feature 3 > 40.75617027282715)
               If (feature 5 <= 40.766977310180664)
                If (feature 6 <= 8.5)
                 Predict: 5.947917882688253
                Else (feature 6 > 8.5)
                 Predict: 5.543607222966351
               Else (feature 5 > 40.766977310180664)
                If (feature 0 <= 1.5)
                 Predict: 7.1049654482698426
                Else (feature 0 > 1.5)
                 Predict: 5.944825180356696
           Else (feature 2 > -73.87301254272461)
            If (feature 3 <= 40.73748970031738)
             Predict: 5.54907608489522
            Else (feature 3 > 40.73748970031738)
             If (feature 6 <= 13.5)
              Predict: 7.857867559331803
             Else (feature 6 > 13.5)
              Predict: 8.401108712395436
         Else (feature 8 > 6.5)
          If (feature 2 <= -73.99511337280273)
           If (feature 6 <= 27.5)
            If (feature 4 <= -73.99260330200195)
             If (feature 2 <= -74.00589370727539)
              If (feature 3 <= 40.73126411437988)
               Predict: 4.700480365792417
              Else (feature 3 > 40.73126411437988)
               If (feature 0 <= 1.5)
                Predict: 5.003946305945459
               Else (feature 0 > 1.5)
                Predict: 5.236441962829949
             Else (feature 2 > -74.00589370727539)
              If (feature 6 <= 16.5)
               If (feature 2 <= -74.00307083129883)
                Predict: 5.293304824724492
               Else (feature 2 > -74.00307083129883)
                If (feature 7 <= 4.5)
                 Predict: 4.666731963944701
                Else (feature 7 > 4.5)
                 Predict: 4.411897574360264
              Else (feature 6 > 16.5)
               If (feature 4 <= -74.00348281860352)
                Predict: 4.276666119016055
               Else (feature 4 > -74.00348281860352)
                If (feature 1 <= 1.5)
                 Predict: 4.454347296253507
                Else (feature 1 > 1.5)
                 Predict: 4.430816798843313
            Else (feature 4 > -73.99260330200195)
             Predict: 5.356586274672011
           Else (feature 6 > 27.5)
            If (feature 2 <= -74.00307083129883)
             Predict: 5.402677381872279
            Else (feature 2 > -74.00307083129883)
             If (feature 2 <= -74.0004997253418)
              Predict: 5.1298987149230735
             Else (feature 2 > -74.0004997253418)
              If (feature 0 <= 1.5)
               Predict: 4.976733742420574
              Else (feature 0 > 1.5)
               Predict: 4.867534450455583
          Else (feature 2 > -73.99511337280273)
           If (feature 4 <= -73.97831344604492)
            If (feature 5 <= 40.76488494873047)
             If (feature 5 <= 40.756343841552734)
              If (feature 5 <= 40.75464057922363)
               If (feature 1 <= 5.5)
                If (feature 7 <= 5.5)
                 Predict: 5.275765574437342
                Else (feature 7 > 5.5)
                 Predict: 5.678874790444362
               Else (feature 1 > 5.5)
                If (feature 12 <= 0.5411748509607731)
                 Predict: 4.354650024472495
                Else (feature 12 > 0.5411748509607731)
                 Predict: 5.246136858885665
              Else (feature 5 > 40.75464057922363)
               If (feature 3 <= 40.75045967102051)
                Predict: 5.786897381366708
               Else (feature 3 > 40.75045967102051)
                If (feature 0 <= 1.5)
                 Predict: 6.846943139585379
                Else (feature 0 > 1.5)
                 Predict: 7.204892510204674
             Else (feature 5 > 40.756343841552734)
              If (feature 6 <= 21.5)
               If (feature 6 <= 9.5)
                If (feature 5 <= 40.75992202758789)
                 Predict: 4.858655271076286
                Else (feature 5 > 40.75992202758789)
                 Predict: 5.265117238248632
               Else (feature 6 > 9.5)
                If (feature 7 <= 3.5)
                 Predict: 4.989826455841425
                Else (feature 7 > 3.5)
                 Predict: 4.341953497316863
              Else (feature 6 > 21.5)
               Predict: 5.73979291217924
            Else (feature 5 > 40.76488494873047)
             If (feature 1 <= 1.5)
              Predict: 8.114623886420098
             Else (feature 1 > 1.5)
              Predict: 5.814130531825066
           Else (feature 4 > -73.97831344604492)
            If (feature 4 <= -73.96052932739258)
             If (feature 1 <= 5.5)
              If (feature 3 <= 40.76998519897461)
               If (feature 3 <= 40.76799201965332)
                If (feature 6 <= 7.5)
                 Predict: 4.677663368584728
                Else (feature 6 > 7.5)
                 Predict: 5.017946009888089
               Else (feature 3 > 40.76799201965332)
                If (feature 6 <= 9.5)
                 Predict: 4.6913478822291435
                Else (feature 6 > 9.5)
                 Predict: 4.295057203454687
              Else (feature 3 > 40.76998519897461)
               If (feature 1 <= 1.5)
                Predict: 5.501258210544727
               Else (feature 1 > 1.5)
                Predict: 5.402677381872279
             Else (feature 1 > 5.5)
              If (feature 2 <= -73.97245407104492)
               Predict: 5.676753802268282
              Else (feature 2 > -73.97245407104492)
               Predict: 5.288267030694536
            Else (feature 4 > -73.96052932739258)
             If (feature 7 <= 4.5)
              If (feature 2 <= -73.95234680175781)
               If (feature 7 <= 2.5)
                If (feature 0 <= 1.5)
                 Predict: 5.298317366548036
                Else (feature 0 > 1.5)
                 Predict: 5.225746673713201
               Else (feature 7 > 2.5)
                If (feature 1 <= 1.5)
                 Predict: 5.602118820879701
                Else (feature 1 > 1.5)
                 Predict: 5.48063892334199
              Else (feature 2 > -73.95234680175781)
               If (feature 0 <= 1.5)
                If (feature 6 <= 19.5)
                 Predict: 4.718498871295094
                Else (feature 6 > 19.5)
                 Predict: 4.51965738746204
               Else (feature 0 > 1.5)
                If (feature 3 <= 40.744455337524414)
                 Predict: 5.14166355650266
                Else (feature 3 > 40.744455337524414)
                 Predict: 5.0106352940962555
             Else (feature 7 > 4.5)
              If (feature 0 <= 1.5)
               If (feature 1 <= 1.5)
                Predict: 5.598421958998375
               Else (feature 1 > 1.5)
                Predict: 5.241747015059642
              Else (feature 0 > 1.5)
               If (feature 3 <= 40.75617027282715)
                If (feature 6 <= 18.5)
                 Predict: 5.9157623200283656
                Else (feature 6 > 18.5)
                 Predict: 5.683579767338681
               Else (feature 3 > 40.75617027282715)
                Predict: 6.459904454377536
      Else (feature 9 > 7.5)
       If (feature 12 <= 0.6832829369247846)
        If (feature 9 <= 19.5)
         If (feature 2 <= -73.87301254272461)
          If (feature 5 <= 40.74704360961914)
           If (feature 5 <= 40.72550392150879)
            If (feature 5 <= 40.68699073791504)
             If (feature 12 <= 0.5411748509607731)
              If (feature 4 <= -74.00348281860352)
               If (feature 7 <= 2.5)
                If (feature 8 <= 1.5)
                 Predict: 4.31748811353631
                Else (feature 8 > 1.5)
                 Predict: 6.1232500545848945
               Else (feature 7 > 2.5)
                If (feature 9 <= 18.5)
                 Predict: 6.496749750290877
                Else (feature 9 > 18.5)
                 Predict: 5.926880803332365
              Else (feature 4 > -74.00348281860352)
               If (feature 4 <= -73.90609741210938)
                If (feature 4 <= -73.97964096069336)
                 Predict: 5.6365288235375015
                Else (feature 4 > -73.97964096069336)
                 Predict: 6.019629935602001
               Else (feature 4 > -73.90609741210938)
                If (feature 6 <= 22.5)
                 Predict: 7.402802983608552
                Else (feature 6 > 22.5)
                 Predict: 5.972886124909806
             Else (feature 12 > 0.5411748509607731)
              If (feature 6 <= 4.5)
               If (feature 2 <= -73.98566055297852)
                If (feature 9 <= 18.5)
                 Predict: 4.879062100608563
                Else (feature 9 > 18.5)
                 Predict: 4.691347882229145
               Else (feature 2 > -73.98566055297852)
                If (feature 2 <= -73.98288345336914)
                 Predict: 5.488937726156687
                Else (feature 2 > -73.98288345336914)
                 Predict: 5.135798437050262
              Else (feature 6 > 4.5)
               If (feature 9 <= 10.5)
                If (feature 6 <= 26.5)
                 Predict: 6.061800962014161
                Else (feature 6 > 26.5)
                 Predict: 5.516802207489695
               Else (feature 9 > 10.5)
                If (feature 6 <= 6.5)
                 Predict: 5.993159691365314
                Else (feature 6 > 6.5)
                 Predict: 5.395053390110364
            Else (feature 5 > 40.68699073791504)
             If (feature 8 <= 3.5)
              If (feature 5 <= 40.715227127075195)
               If (feature 8 <= 1.5)
                If (feature 6 <= 26.5)
                 Predict: 5.458776779311444
                Else (feature 6 > 26.5)
                 Predict: 5.789709740236411
               Else (feature 8 > 1.5)
                If (feature 9 <= 12.5)
                 Predict: 5.8127936107845475
                Else (feature 9 > 12.5)
                 Predict: 5.650089656220226
              Else (feature 5 > 40.715227127075195)
               If (feature 2 <= -74.00589370727539)
                If (feature 9 <= 14.5)
                 Predict: 5.52726055532955
                Else (feature 9 > 14.5)
                 Predict: 5.311633696282035
               Else (feature 2 > -74.00589370727539)
                If (feature 2 <= -73.99353408813477)
                 Predict: 5.675823464550425
                Else (feature 2 > -73.99353408813477)
                 Predict: 5.4891314819601345
             Else (feature 8 > 3.5)
              If (feature 2 <= -73.94611358642578)
               If (feature 2 <= -73.98566055297852)
                If (feature 12 <= 0.5411748509607731)
                 Predict: 5.644941521432083
                Else (feature 12 > 0.5411748509607731)
                 Predict: 5.762100122920906
               Else (feature 2 > -73.98566055297852)
                If (feature 1 <= 1.5)
                 Predict: 5.4558570828278645
                Else (feature 1 > 1.5)
                 Predict: 5.7458587053032595
              Else (feature 2 > -73.94611358642578)
               If (feature 8 <= 5.5)
                If (feature 0 <= 1.5)
                 Predict: 7.892078421248119
                Else (feature 0 > 1.5)
                 Predict: 7.843848638152473
               Else (feature 8 > 5.5)
                If (feature 4 <= -73.93750762939453)
                 Predict: 6.835082829927101
                Else (feature 4 > -73.93750762939453)
                 Predict: 6.255305792628577
           Else (feature 5 > 40.72550392150879)
            If (feature 2 <= -73.97615814208984)
             If (feature 8 <= 2.5)
              If (feature 5 <= 40.744436264038086)
               If (feature 2 <= -73.98825454711914)
                If (feature 4 <= -73.99260330200195)
                 Predict: 5.384396448517879
                Else (feature 4 > -73.99260330200195)
                 Predict: 5.483238443504102
               Else (feature 2 > -73.98825454711914)
                If (feature 3 <= 40.73748970031738)
                 Predict: 5.227595706406149
                Else (feature 3 > 40.73748970031738)
                 Predict: 5.372002764002704
              Else (feature 5 > 40.744436264038086)
               If (feature 4 <= -74.00582504272461)
                If (feature 1 <= 5.5)
                 Predict: 5.916489666960017
                Else (feature 1 > 5.5)
                 Predict: 7.154615356913666
               Else (feature 4 > -74.00582504272461)
                If (feature 3 <= 40.744455337524414)
                 Predict: 5.393390054313716
                Else (feature 3 > 40.744455337524414)
                 Predict: 5.601532282566579
             Else (feature 8 > 2.5)
              If (feature 4 <= -73.99472427368164)
               If (feature 2 <= -73.99174880981445)
                If (feature 4 <= -74.00348281860352)
                 Predict: 5.50671224016945
                Else (feature 4 > -74.00348281860352)
                 Predict: 5.403996608836565
               Else (feature 2 > -73.99174880981445)
                If (feature 2 <= -73.98825454711914)
                 Predict: 5.60075867578612
                Else (feature 2 > -73.98825454711914)
                 Predict: 6.172261461752309
              Else (feature 4 > -73.99472427368164)
               If (feature 2 <= -73.98949813842773)
                If (feature 4 <= -73.99260330200195)
                 Predict: 5.521502536976855
                Else (feature 4 > -73.99260330200195)
                 Predict: 5.681465904143437
               Else (feature 2 > -73.98949813842773)
                If (feature 5 <= 40.7394962310791)
                 Predict: 5.435892978342337
                Else (feature 5 > 40.7394962310791)
                 Predict: 5.575287959236788
            Else (feature 2 > -73.97615814208984)
             If (feature 0 <= 1.5)
              If (feature 4 <= -73.9471206665039)
               If (feature 6 <= 6.5)
                If (feature 8 <= 2.5)
                 Predict: 4.898671894520336
                Else (feature 8 > 2.5)
                 Predict: 5.466329703876731
               Else (feature 6 > 6.5)
                If (feature 5 <= 40.73313903808594)
                 Predict: 4.695409177840006
                Else (feature 5 > 40.73313903808594)
                 Predict: 5.8113204335409465
              Else (feature 4 > -73.9471206665039)
               If (feature 6 <= 5.5)
                If (feature 5 <= 40.7394962310791)
                 Predict: 6.532351251309056
                Else (feature 5 > 40.7394962310791)
                 Predict: 5.487297123434505
               Else (feature 6 > 5.5)
                If (feature 1 <= 1.5)
                 Predict: 5.16912377112089
                Else (feature 1 > 1.5)
                 Predict: 6.089179901405075
             Else (feature 0 > 1.5)
              If (feature 4 <= -73.95698928833008)
               If (feature 8 <= 1.5)
                If (feature 1 <= 4.5)
                 Predict: 4.893566656958521
                Else (feature 1 > 4.5)
                 Predict: 5.6616083448711265
               Else (feature 8 > 1.5)
                If (feature 6 <= 28.5)
                 Predict: 5.792964177526112
                Else (feature 6 > 28.5)
                 Predict: 5.2424173711238735
              Else (feature 4 > -73.95698928833008)
               If (feature 12 <= 0.5411748509607731)
                If (feature 7 <= 3.5)
                 Predict: 5.922326417021042
                Else (feature 7 > 3.5)
                 Predict: 6.521756830274709
               Else (feature 12 > 0.5411748509607731)
                If (feature 5 <= 40.7394962310791)
                 Predict: 6.067581802105572
                Else (feature 5 > 40.7394962310791)
                 Predict: 5.223375142546662
          Else (feature 5 > 40.74704360961914)
           If (feature 4 <= -73.9692268371582)
            If (feature 8 <= 1.5)
             If (feature 9 <= 11.5)
              If (feature 6 <= 19.5)
               If (feature 4 <= -74.00348281860352)
                If (feature 3 <= 40.75423812866211)
                 Predict: 4.419638345292675
                Else (feature 3 > 40.75423812866211)
                 Predict: 4.804021044733258
               Else (feature 4 > -74.00348281860352)
                If (feature 2 <= -73.99511337280273)
                 Predict: 5.569475991441783
                Else (feature 2 > -73.99511337280273)
                 Predict: 5.307096896114835
              Else (feature 6 > 19.5)
               If (feature 6 <= 21.5)
                If (feature 2 <= -73.99353408813477)
                 Predict: 7.078819100577887
                Else (feature 2 > -73.99353408813477)
                 Predict: 5.71255739726347
               Else (feature 6 > 21.5)
                If (feature 7 <= 5.5)
                 Predict: 5.308230953273768
                Else (feature 7 > 5.5)
                 Predict: 5.730676852829877
             Else (feature 9 > 11.5)
              If (feature 4 <= -73.97964096069336)
               If (feature 5 <= 40.76321601867676)
                If (feature 4 <= -74.00348281860352)
                 Predict: 4.876459676020068
                Else (feature 4 > -74.00348281860352)
                 Predict: 5.744971959072765
               Else (feature 5 > 40.76321601867676)
                If (feature 6 <= 21.5)
                 Predict: 5.489458805346409
                Else (feature 6 > 21.5)
                 Predict: 5.109260774971623
              Else (feature 4 > -73.97964096069336)
               If (feature 12 <= 0.5411748509607731)
                If (feature 2 <= -73.97785949707031)
                 Predict: 5.1705748000813445
                Else (feature 2 > -73.97785949707031)
                 Predict: 5.436138226447039
               Else (feature 12 > 0.5411748509607731)
                If (feature 5 <= 40.74929618835449)
                 Predict: 4.9727603933907805
                Else (feature 5 > 40.74929618835449)
                 Predict: 5.557653875745421
            Else (feature 8 > 1.5)
             If (feature 12 <= 0.5411748509607731)
              If (feature 7 <= 4.5)
               If (feature 3 <= 40.76552772521973)
                If (feature 4 <= -73.97831344604492)
                 Predict: 5.688195023449045
                Else (feature 4 > -73.97831344604492)
                 Predict: 5.605128020869647
               Else (feature 3 > 40.76552772521973)
                If (feature 2 <= -73.9819450378418)
                 Predict: 5.399004810655105
                Else (feature 2 > -73.9819450378418)
                 Predict: 5.656706877236699
              Else (feature 7 > 4.5)
               If (feature 3 <= 40.74678421020508)
                If (feature 2 <= -73.99511337280273)
                 Predict: 4.989184918609617
                Else (feature 2 > -73.99511337280273)
                 Predict: 5.578281223227047
               Else (feature 3 > 40.74678421020508)
                If (feature 6 <= 2.5)
                 Predict: 5.542924270280228
                Else (feature 6 > 2.5)
                 Predict: 5.783341343686685
             Else (feature 12 > 0.5411748509607731)
              If (feature 4 <= -74.00024795532227)
               If (feature 2 <= -74.00589370727539)
                If (feature 4 <= -74.00582504272461)
                 Predict: 6.138022615622101
                Else (feature 4 > -74.00582504272461)
                 Predict: 4.730669738533918
               Else (feature 2 > -74.00589370727539)
                If (feature 3 <= 40.751956939697266)
                 Predict: 5.543216115250862
                Else (feature 3 > 40.751956939697266)
                 Predict: 5.293739518043506
              Else (feature 4 > -74.00024795532227)
               If (feature 9 <= 8.5)
                If (feature 8 <= 6.5)
                 Predict: 5.659907981753763
                Else (feature 8 > 6.5)
                 Predict: 5.147494935494223
               Else (feature 9 > 8.5)
                If (feature 5 <= 40.76488494873047)
                 Predict: 5.849710973318382
                Else (feature 5 > 40.76488494873047)
                 Predict: 5.634314183643278
           Else (feature 4 > -73.9692268371582)
            If (feature 8 <= 6.5)
             If (feature 8 <= 1.5)
              If (feature 9 <= 12.5)
               If (feature 1 <= 3.5)
                If (feature 7 <= 4.5)
                 Predict: 5.110121798221983
                Else (feature 7 > 4.5)
                 Predict: 5.409922118209379
               Else (feature 1 > 3.5)
                If (feature 3 <= 40.759260177612305)
                 Predict: 6.266693817182335
                Else (feature 3 > 40.759260177612305)
                 Predict: 5.450619603693253
              Else (feature 9 > 12.5)
               If (feature 9 <= 17.5)
                If (feature 4 <= -73.96327590942383)
                 Predict: 5.613481092706609
                Else (feature 4 > -73.96327590942383)
                 Predict: 5.378965982962687
               Else (feature 9 > 17.5)
                If (feature 7 <= 1.5)
                 Predict: 5.5996964521968176
                Else (feature 7 > 1.5)
                 Predict: 5.231979671351964
             Else (feature 8 > 1.5)
              If (feature 2 <= -73.97245407104492)
               If (feature 9 <= 16.5)
                If (feature 5 <= 40.75992202758789)
                 Predict: 5.738847415948096
                Else (feature 5 > 40.75992202758789)
                 Predict: 6.017359901232712
               Else (feature 9 > 16.5)
                If (feature 12 <= 0.5411748509607731)
                 Predict: 5.233055280712886
                Else (feature 12 > 0.5411748509607731)
                 Predict: 5.697496833090215
              Else (feature 2 > -73.97245407104492)
               If (feature 3 <= 40.76552772521973)
                If (feature 5 <= 40.76488494873047)
                 Predict: 5.559560566464234
                Else (feature 5 > 40.76488494873047)
                 Predict: 5.39044063622354
               Else (feature 3 > 40.76552772521973)
                If (feature 9 <= 17.5)
                 Predict: 5.665060908813261
                Else (feature 9 > 17.5)
                 Predict: 5.415851111957438
            Else (feature 8 > 6.5)
             If (feature 3 <= 40.75045967102051)
              If (feature 6 <= 5.5)
               If (feature 0 <= 1.5)
                Predict: 7.317876198626496
               Else (feature 0 > 1.5)
                Predict: 6.595780513961311
              Else (feature 6 > 5.5)
               If (feature 7 <= 1.5)
                Predict: 6.70808408385307
               Else (feature 7 > 1.5)
                If (feature 6 <= 6.5)
                 Predict: 5.410738420522932
                Else (feature 6 > 6.5)
                 Predict: 5.880043994259665
             Else (feature 3 > 40.75045967102051)
              If (feature 9 <= 10.5)
               If (feature 4 <= -73.90609741210938)
                If (feature 7 <= 1.5)
                 Predict: 5.429815297909075
                Else (feature 7 > 1.5)
                 Predict: 5.075224318169021
               Else (feature 4 > -73.90609741210938)
                If (feature 3 <= 40.751956939697266)
                 Predict: 5.627621113690637
                Else (feature 3 > 40.751956939697266)
                 Predict: 6.679599185844383
              Else (feature 9 > 10.5)
               If (feature 5 <= 40.752546310424805)
                If (feature 5 <= 40.74929618835449)
                 Predict: 5.386531946519588
                Else (feature 5 > 40.74929618835449)
                 Predict: 4.774858724740604
               Else (feature 5 > 40.752546310424805)
                If (feature 5 <= 40.75464057922363)
                 Predict: 5.755651807522931
                Else (feature 5 > 40.75464057922363)
                 Predict: 5.357065722516897
         Else (feature 2 > -73.87301254272461)
          If (feature 0 <= 1.5)
           If (feature 3 <= 40.70049476623535)
            If (feature 11 <= 0.5)
             If (feature 8 <= 1.5)
              If (feature 1 <= 1.5)
               If (feature 2 <= -73.7819595336914)
                If (feature 7 <= 1.5)
                 Predict: 6.332881546105911
                Else (feature 7 > 1.5)
                 Predict: 5.631211781821364
               Else (feature 2 > -73.7819595336914)
                Predict: 7.426549072397307
              Else (feature 1 > 1.5)
               If (feature 4 <= -73.7901611328125)
                Predict: 6.008813185442595
               Else (feature 4 > -73.7901611328125)
                If (feature 9 <= 15.5)
                 Predict: 4.2626798770413155
                Else (feature 9 > 15.5)
                 Predict: 4.442651256490318
             Else (feature 8 > 1.5)
              If (feature 8 <= 2.5)
               If (feature 6 <= 2.5)
                Predict: 5.181783550292085
               Else (feature 6 > 2.5)
                If (feature 9 <= 13.5)
                 Predict: 4.571882007603413
                Else (feature 9 > 13.5)
                 Predict: 4.2735604890164165
              Else (feature 8 > 2.5)
               If (feature 9 <= 12.5)
                If (feature 1 <= 1.5)
                 Predict: 5.44565375497763
                Else (feature 1 > 1.5)
                 Predict: 8.443546651247939
               Else (feature 9 > 12.5)
                If (feature 7 <= 3.5)
                 Predict: 5.395873617337498
                Else (feature 7 > 3.5)
                 Predict: 4.810699694512914
            Else (feature 11 > 0.5)
             If (feature 7 <= 2.5)
              If (feature 9 <= 16.5)
               If (feature 6 <= 15.5)
                Predict: 8.363109176033522
               Else (feature 6 > 15.5)
                If (feature 8 <= 5.5)
                 Predict: 6.066359977719058
                Else (feature 8 > 5.5)
                 Predict: 4.75388736793532
              Else (feature 9 > 16.5)
               If (feature 8 <= 6.5)
                If (feature 6 <= 19.5)
                 Predict: 4.686589836747984
                Else (feature 6 > 19.5)
                 Predict: 5.767125229710672
               Else (feature 8 > 6.5)
                Predict: 6.598509028614515
             Else (feature 7 > 2.5)
              If (feature 9 <= 17.5)
               If (feature 6 <= 4.5)
                Predict: 4.330733340286331
               Else (feature 6 > 4.5)
                If (feature 12 <= 0.5411748509607731)
                 Predict: 7.146341812446085
                Else (feature 12 > 0.5411748509607731)
                 Predict: 8.796430863211334
              Else (feature 9 > 17.5)
               If (feature 5 <= 40.68699073791504)
                If (feature 1 <= 1.5)
                 Predict: 4.908964832087241
                Else (feature 1 > 1.5)
                 Predict: 4.605170185988092
               Else (feature 5 > 40.68699073791504)
                If (feature 6 <= 4.5)
                 Predict: 7.819636302367592
                Else (feature 6 > 4.5)
                 Predict: 6.534472861448826
           Else (feature 3 > 40.70049476623535)
            If (feature 6 <= 4.5)
             If (feature 3 <= 40.72381019592285)
              If (feature 3 <= 40.7199821472168)
               If (feature 3 <= 40.71390151977539)
                Predict: 5.730099782973575
               Else (feature 3 > 40.71390151977539)
                Predict: 5.356586274672011
              Else (feature 3 > 40.7199821472168)
               Predict: 6.458338283344791
             Else (feature 3 > 40.72381019592285)
              If (feature 1 <= 1.5)
               If (feature 7 <= 3.5)
                Predict: 4.867534450455582
               Else (feature 7 > 3.5)
                Predict: 5.1119877883565445
              Else (feature 1 > 1.5)
               Predict: 4.605170185988092
            Else (feature 6 > 4.5)
             If (feature 6 <= 24.5)
              If (feature 6 <= 23.5)
               If (feature 7 <= 2.5)
                If (feature 3 <= 40.76998519897461)
                 Predict: 6.933682208326737
                Else (feature 3 > 40.76998519897461)
                 Predict: 5.620400865717151
               Else (feature 7 > 2.5)
                If (feature 2 <= -73.7819595336914)
                 Predict: 6.165643211239704
                Else (feature 2 > -73.7819595336914)
                 Predict: 4.921709513035012
              Else (feature 6 > 23.5)
               If (feature 7 <= 3.5)
                Predict: 7.789868559054706
               Else (feature 7 > 3.5)
                If (feature 3 <= 40.71390151977539)
                 Predict: 8.326758814511733
                Else (feature 3 > 40.71390151977539)
                 Predict: 8.293299358711325
             Else (feature 6 > 24.5)
              If (feature 12 <= 0.5411748509607731)
               If (feature 7 <= 2.5)
                If (feature 9 <= 16.5)
                 Predict: 5.501224889984263
                Else (feature 9 > 16.5)
                 Predict: 5.545177444479563
               Else (feature 7 > 2.5)
                If (feature 3 <= 40.7199821472168)
                 Predict: 5.159055299214529
                Else (feature 3 > 40.7199821472168)
                 Predict: 5.400114212582785
              Else (feature 12 > 0.5411748509607731)
               Predict: 6.033086221798804
          Else (feature 0 > 1.5)
           If (feature 8 <= 1.5)
            If (feature 4 <= -73.7901611328125)
             If (feature 7 <= 3.5)
              If (feature 11 <= 0.5)
               If (feature 6 <= 27.5)
                If (feature 1 <= 1.5)
                 Predict: 6.0779709165466596
                Else (feature 1 > 1.5)
